digraph Tree {
node [shape=box, style="filled", color="black"] ;
0 [label="x2 <= 0.9044\ngini = 0.5\nsamples = 200\nvalue = [100, 100]", fillcolor="#e5813900"] ;
1 [label="x1 <= 1.8977\ngini = 0.1732\nsamples = 94\nvalue = [85, 9]", fillcolor="#e58139e4"] ;
0 -> 1 [labeldistance=2.5, labelangle=45, headlabel="True"] ;
2 [label="x2 <= 0.6754\ngini = 0.1072\nsamples = 88\nvalue = [83, 5]", fillcolor="#e58139f0"] ;
1 -> 2 ;
3 [label="x1 <= 1.4411\ngini = 0.0494\nsamples = 79\nvalue = [77, 2]", fillcolor="#e58139f8"] ;
2 -> 3 ;
4 [label="gini = 0.0\nsamples = 68\nvalue = [68, 0]", fillcolor="#e58139ff"] ;
3 -> 4 ;
5 [label="x2 <= 0.5426\ngini = 0.2975\nsamples = 11\nvalue = [9, 2]", fillcolor="#e58139c6"] ;
3 -> 5 ;
6 [label="gini = 0.18\nsamples = 10\nvalue = [9, 1]", fillcolor="#e58139e3"] ;
5 -> 6 ;
7 [label="gini = 0.0\nsamples = 1\nvalue = [0, 1]", fillcolor="#399de5ff"] ;
5 -> 7 ;
8 [label="x1 <= -1.258\ngini = 0.4444\nsamples = 9\nvalue = [6, 3]", fillcolor="#e581397f"] ;
2 -> 8 ;
9 [label="gini = 0.0\nsamples = 2\nvalue = [0, 2]", fillcolor="#399de5ff"] ;
8 -> 9 ;
10 [label="x2 <= 0.6856\ngini = 0.2449\nsamples = 7\nvalue = [6, 1]", fillcolor="#e58139d4"] ;
8 -> 10 ;
11 [label="gini = 0.0\nsamples = 1\nvalue = [0, 1]", fillcolor="#399de5ff"] ;
10 -> 11 ;
12 [label="gini = 0.0\nsamples = 6\nvalue = [6, 0]", fillcolor="#e58139ff"] ;
10 -> 12 ;
13 [label="x2 <= -0.2516\ngini = 0.4444\nsamples = 6\nvalue = [2, 4]", fillcolor="#399de57f"] ;
1 -> 13 ;
14 [label="gini = 0.0\nsamples = 1\nvalue = [1, 0]", fillcolor="#e58139ff"] ;
13 -> 14 ;
15 [label="x1 <= 2.2502\ngini = 0.32\nsamples = 5\nvalue = [1, 4]", fillcolor="#399de5bf"] ;
13 -> 15 ;
16 [label="gini = 0.0\nsamples = 2\nvalue = [0, 2]", fillcolor="#399de5ff"] ;
15 -> 16 ;
17 [label="x1 <= 2.4249\ngini = 0.4444\nsamples = 3\nvalue = [1, 2]", fillcolor="#399de57f"] ;
15 -> 17 ;
18 [label="gini = 0.0\nsamples = 1\nvalue = [1, 0]", fillcolor="#e58139ff"] ;
17 -> 18 ;
19 [label="gini = 0.0\nsamples = 2\nvalue = [0, 2]", fillcolor="#399de5ff"] ;
17 -> 19 ;
20 [label="x1 <= 0.3785\ngini = 0.243\nsamples = 106\nvalue = [15, 91]", fillcolor="#399de5d5"] ;
0 -> 20 [labeldistance=2.5, labelangle=-45, headlabel="False"] ;
21 [label="x2 <= 1.9246\ngini = 0.355\nsamples = 13\nvalue = [10, 3]", fillcolor="#e58139b3"] ;
20 -> 21 ;
22 [label="x2 <= 0.9473\ngini = 0.1653\nsamples = 11\nvalue = [10, 1]", fillcolor="#e58139e6"] ;
21 -> 22 ;
23 [label="gini = 0.0\nsamples = 1\nvalue = [0, 1]", fillcolor="#399de5ff"] ;
22 -> 23 ;
24 [label="gini = 0.0\nsamples = 10\nvalue = [10, 0]", fillcolor="#e58139ff"] ;
22 -> 24 ;
25 [label="gini = 0.0\nsamples = 2\nvalue = [0, 2]", fillcolor="#399de5ff"] ;
21 -> 25 ;
26 [label="x1 <= 1.0151\ngini = 0.1017\nsamples = 93\nvalue = [5, 88]", fillcolor="#399de5f1"] ;
20 -> 26 ;
27 [label="x1 <= 0.8109\ngini = 0.32\nsamples = 15\nvalue = [3, 12]", fillcolor="#399de5bf"] ;
26 -> 27 ;
28 [label="gini = 0.0\nsamples = 8\nvalue = [0, 8]", fillcolor="#399de5ff"] ;
27 -> 28 ;
29 [label="x2 <= 2.4414\ngini = 0.4898\nsamples = 7\nvalue = [3, 4]", fillcolor="#399de540"] ;
27 -> 29 ;
30 [label="gini = 0.48\nsamples = 5\nvalue = [3, 2]", fillcolor="#e5813955"] ;
29 -> 30 ;
31 [label="gini = 0.0\nsamples = 2\nvalue = [0, 2]", fillcolor="#399de5ff"] ;
29 -> 31 ;
32 [label="x2 <= 0.9642\ngini = 0.05\nsamples = 78\nvalue = [2, 76]", fillcolor="#399de5f8"] ;
26 -> 32 ;
33 [label="x1 <= 2.1825\ngini = 0.5\nsamples = 2\nvalue = [1, 1]", fillcolor="#e5813900"] ;
32 -> 33 ;
34 [label="gini = 0.0\nsamples = 1\nvalue = [1, 0]", fillcolor="#e58139ff"] ;
33 -> 34 ;
35 [label="gini = 0.0\nsamples = 1\nvalue = [0, 1]", fillcolor="#399de5ff"] ;
33 -> 35 ;
36 [label="x1 <= 1.7069\ngini = 0.026\nsamples = 76\nvalue = [1, 75]", fillcolor="#399de5fc"] ;
32 -> 36 ;
37 [label="gini = 0.0689\nsamples = 28\nvalue = [1, 27]", fillcolor="#399de5f6"] ;
36 -> 37 ;
38 [label="gini = 0.0\nsamples = 48\nvalue = [0, 48]", fillcolor="#399de5ff"] ;
36 -> 38 ;
}